{"cost": "CrossEntropyCost", "weights": [[[0.1774860378958504, -0.19048385370936832, -0.44031283421107353], [-0.21197562078346552, -1.0525548929310546, -0.2640050648103547], [0.1468434977581088, -0.1966472695577261, -0.31235213461423633], [-0.053755273363124884, -0.6184472205826782, -0.35109761440295323], [0.27153126259623006, 0.7050007165125866, -0.15137436243833322], [-0.054997398457322454, -1.7717810722729708, 0.0666064903685197], [-0.138591912087881, -0.5253593213172345, 0.028032563534651195], [-0.518300745353684, -0.7551118459492785, 0.20405797059068256], [0.34355967070713134, 0.2883839430079308, -0.1873207606292353], [0.08748432912611737, -1.463416953288534, 0.09622137816349206], [0.36553342991254484, 1.9557261175460703, 0.27868634298804185], [0.3596750198633776, 1.3731315125410808, -0.2762936213031893], [-0.28609067433462904, 0.3443725227772041, 0.1291558427768168], [0.7676572108044667, 0.062264947070906664, -0.06376605147947692], [-0.09773816230134336, -0.36891158091162063, -0.4360660691613339], [-0.1883884644043157, 0.023821177682284315, 0.5949463041185794], [-0.18917274269760317, -1.544263604925056, -0.03246221847432687], [0.03303932981307582, -1.7668908110117076, -0.35799149720616263], [-0.7701490040883062, -0.5906843751865894, -0.5454545790843658], [0.0740950365068184, -0.4372923971733958, -0.16112134553669552], [0.154124430944403, 0.4029486532952059, 0.006813743326132074], [0.29917031121034066, -0.3151700296580108, 0.005655557288228231], [-0.027888480434134392, -1.188919359237211, 0.21208828827525605], [-0.05196149713405285, -0.1465116184844355, 0.45387128720184783], [0.3860784086968455, 0.12142239258477341, -0.11260087636166342], [-0.00615392158104309, -1.7444142034330372, -0.08667010645905875], [0.4566727483760824, 1.4066898776666292, 0.10709279551810992], [-0.6774768213492085, -0.6188695034390639, 0.10006697346650335], [-0.3338242333176337, -1.1543024881441337, 0.08806858310362997], [-0.411926488096258, -0.3686218547852771, 0.017526051009919524], [0.08994144631074767, 0.3758314743941223, 0.0512570492921231], [0.7405713453084164, 0.5369401393593473, -0.4421898930477759], [-0.014307822864714239, -0.7660917728881869, -0.36526261024540513], [0.42558285260755363, 0.153347895408288, 0.3309134855539908], [-0.05576977836763842, -0.1671463708200372, -0.06140719759798444], [-0.5135444612093594, -0.0818805010214305, 0.6522055219723241], [-0.010315487700221596, -0.1996559311280743, -0.39348807822072585], [-0.15153534915845376, 1.202088109405709, 0.049973121760146615], [-0.27556750603516544, -2.159312686686923, -0.32636371086777405], [0.15735454347751485, -0.2963607273775627, -0.2313085807670422], [-0.6654350842690454, -0.44774376129366966, 0.6152127019240817], [-0.4756511919463438, 0.12393628178577856, 0.010701452557566979], [-0.22450787232982458, -3.048261947097065, -0.23295153136577895], [0.2521975052179113, -1.1419682800870934, 0.40545490314552585], [0.006018384023969616, 0.47165974603801214, -0.0736932934679898], [0.25618234153217023, 0.30810540014443993, 0.6020097674654362], [0.10396944489607692, -0.2624487602302171, -0.3968695116615455], [0.04630901627051644, -0.4021484929456172, -0.18467086392054374], [0.1042771963585225, 0.11539674082141042, 0.5781200603140119], [0.10204158740676615, 1.1341557993858582, -0.3107152700165106], [0.014826346003739034, 0.3889099346246377, 0.4674124854179317], [0.1802690986701832, 0.17574371380243897, 0.09957179865543286], [0.05295074810555799, -0.7978196755832234, -0.27157191599072267], [-0.07496584824214991, -0.21646388091055802, -0.023143204412641217], [-0.010940024970849971, -1.2314548271555852, -0.47741445700651497], [-0.6232381193567791, -0.03338645321292185, -0.06764179650284456], [-0.4117781076053454, 2.0516917408636584, -0.13948157403999525], [-0.20443678481133856, -0.8531565317011769, -0.10506950335176854], [-0.24296488452767084, -1.0587055445220304, 0.49340561986960757], [-0.35183935153398527, -0.013179810955750135, 0.2675191460796689], [-0.12731974490667783, 1.1491312646493577, 0.5156046698517918], [-0.08825771201988789, -1.0400707342385944, 0.12914888789184856], [0.2397564921833164, 0.41358143111550444, -0.29424246143923594], [-0.13291528776817196, 0.1418801959259146, 0.25144375189017004], [-0.5891316996393886, -0.27814301144116077, -0.41854317106112243], [0.07709522269061711, 0.5137688259687343, -0.14136727826485823], [0.043729262762099465, -0.30090147863407163, -0.35046787830508863], [0.41879095680011513, 0.5354917511320697, 0.1277197872809935], [0.24677532954551396, 0.292548060404042, -0.4089573984631576], [0.15844974584129332, -0.8015447246390571, 0.3382224999361966], [-0.12660925914399662, 0.36414895009309406, 0.017524769722693942], [0.43856070740797604, 0.5747101627714533, -0.0667663655034157], [0.12700230129162018, 0.3424797713682794, 0.1305014760564323], [-0.30979374850717173, -1.0350227916071708, 0.16052266814740432], [0.1562821780120978, 0.368209194632034, -0.16671256368333753], [-0.11018367337488649, -0.11724269600534291, -0.01871544690669993], [-0.0009719937065208283, 0.1986991175477257, -0.06641304621662608], [-0.13201612993357612, 0.04361489890179228, -0.1793113995485464], [0.2005460833918672, 0.5491996036223217, 0.5045906935422046], [0.10025383808739755, 2.88594265396566, 0.304332423127357], [0.01618801591196108, -0.7955330414576307, 0.6179429294581643], [-0.05571926888664979, -0.44769002263320207, 0.3982134142833318], [-0.6394499306964919, -0.13516433118170976, 0.5178836696089475], [0.21518478420650616, 1.2803797925959397, 0.48481513760419215], [0.11015567823095279, 0.16682615994194408, -0.20208606801496362], [0.3906370508326601, 1.857814990385535, 0.5870037455866933], [-0.4430097680297502, -0.6717940224548947, -0.5119772263399441], [-0.5068866267967003, 0.28317206057673683, 0.14807664114694602], [-0.39570680728573054, -0.06067283956198777, 0.2534850286970163], [-0.010405567565979948, -1.017452664593349, -0.4257597129289109], [0.12464436372929262, 0.6308722269684155, -0.03450707275469225], [-0.04528390887032928, -0.526277627875802, -0.054927011223123094], [-0.3020213995155186, 0.27564517334360317, -0.08208343896324821], [-0.18408791899591054, -0.266674143504413, 0.48357523694644694], [-0.16328520028619123, -0.386189133468514, -0.3215592315340481], [-0.08441352337518807, -0.8821231852066419, -0.28498145231065475], [-0.044458129022849596, -2.6989364693739004, -0.029705150311092617], [-0.028861072281821377, -0.15127577830102545, -0.7478997497604092], [-0.3068462947101651, 2.671639929000135, 0.07376518115191318], [-0.3634457369887896, -2.7079743749596856, -0.19148972738973327], [-0.21544182800021572, 0.953024624798222, 0.042240079641666504], [-0.21301567315318298, -1.4795126633224396, 0.12261029901999373], [0.05630443604306746, 0.4348739769416249, 0.05907857252429425], [-0.31041979114752827, 1.7009404484516706, -0.01530078975205071], [0.054419620173184795, 0.295545596448626, -0.22727639295371213], [0.4254803475916282, -0.8325598382032254, -0.39152011187250313], [-0.061647417756730515, -0.17748170392792878, -0.6747661382840848], [0.016380444378670495, -1.1305193194812209, 0.037103904559687685], [-0.3439974002787578, -0.23044176521449272, 0.02555481263462401], [-0.14088399446360694, -0.12656727938270834, -0.1379040299454484], [-0.051394634910507636, 2.0007897465150077, 0.22165006999286588], [0.7121879318608082, 0.5410482349192053, -0.18464161284014607]], [[0.10370402525805793, 0.7952781923635382, 0.14981290442404885, 0.4092144806641072, -0.5394378747433759, 1.225050278691387, 0.4015196196397176, 0.5315411891637413, -0.16228755296189645, 1.047017751600811, -1.4004727753674666, -1.0288643169925342, -0.26840759321752644, -0.15888668427532987, 0.271768045318951, -0.021353140497293116, 1.0955525366717294, 1.2290143251144567, 0.5075449313787994, 0.2507398300447388, -0.31260584474232095, 0.23793915854463527, 0.7641528986734036, 0.003613250850791305, -0.09577048453270914, 1.2490831558085318, -1.0218547954773312, 0.4285985994728673, 0.8043954569087585, 0.23019796019044986, -0.2733104611702463, -0.34966029374803853, 0.48171717568808436, -0.1817308308401621, 0.11548720982124681, 0.017661151384399294, 0.1416959688414745, -0.8927506510875427, 1.5038731879052256, 0.13462231696044877, 0.1798386922061601, -0.14639750613545136, 2.1343287021986663, 0.7324635670683421, -0.3504976399514391, -0.35468634442946495, 0.078441924131911, 0.2571433059901896, -0.11412869166478985, -0.7033242044079197, -0.3563990035978382, -0.19691608862565987, 0.49892656317082923, 0.06719001686107544, 0.8013433230232451, 0.07259453078847564, -1.4864357691829058, 0.5500798555765635, 0.7614428110891076, 0.011549408880130039, -0.8422881553255026, 0.6592166175946768, -0.2498639051112768, -0.1572027606198219, 0.22576578724190657, -0.44122193491201483, 0.1767613382247402, -0.24730847716435536, -0.1793638433908492, 0.4932626503271219, -0.21294192677454002, -0.37806808423398097, -0.15674329237681753, 0.7356461062812285, -0.3066222634436962, 0.08323353897183404, -0.17642271291177986, -0.020738981970359553, -0.42496039625424636, -2.055957198992955, 0.35559706591251333, 0.25864596779895116, 0.10366389439438617, -1.0707067073166248, -0.152046791952672, -1.4568467682354662, 0.5447128792007252, -0.19789030779546268, 0.016459357610836937, 0.743003081140063, -0.5178809955118027, 0.35975164810217264, -0.18016294045090578, 0.12787097699226102, 0.2594906850553497, 0.6219947911126992, 1.8685198066404645, 0.11641570843487947, -1.8558710693405942, 1.9246697111452464, -0.701650210524939, 0.9840338755940333, -0.28418555981891636, -1.269194921523589, -0.1894724177011034, 0.5444647437598875, 0.19451298813113765, 0.7342650816843298, 0.14555794177320006, 0.09092427871312983, -1.4935952811001671, -0.48984885056122074], [-0.10084324368280057, -0.7006745475776289, -0.08041639115517188, -0.37290491651174645, 0.49807860562611883, -1.2784177576924203, -0.3279996940793792, -0.5430227663708447, 0.28314564800757297, -0.9907094501132255, 1.4253079885120121, 0.997707458641136, 0.27252795007248226, 0.10736614333839269, -0.28373396783915833, 0.12888295869914776, -1.13826326132954, -1.1930652063379188, -0.48402840684788623, -0.3315751281682526, 0.22172717895869562, -0.11935877634841854, -0.8363849332493387, -0.07869385107088894, 0.13378425073774683, -1.1924566300163661, 0.9810211832043334, -0.4457502334949329, -0.8798145096361673, -0.2328621070264969, 0.307643377390382, 0.40365943505169266, -0.5370825511163783, 0.19877531319719394, -0.10866063917831408, -0.023406538411962222, -0.14992586315739945, 0.83010840360659, -1.563614445678621, -0.2037591589227192, -0.2894515490748823, -0.01106168956548469, -2.228683902578768, -0.7079551479666314, 0.29773333916505795, 0.2830796930711453, -0.05664383597775973, -0.26504380034326663, 0.171595165616232, 0.8711555827018233, 0.2879885020789277, 0.1301693672016168, -0.501397010700185, -0.15163743001652685, -0.8194413276145486, -0.04638297263926011, 1.3581545878222574, -0.6502654628506565, -0.6624512492961767, 0.0057738343092880885, 0.8526701685012479, -0.664259089608627, 0.35364172016326884, 0.07915348844500548, -0.2537961627765783, 0.31336242978412476, -0.22803061059056562, 0.20194854924089706, 0.2630891336896519, -0.4942198619058096, 0.3040895124753891, 0.45852852352643225, 0.14890635325616636, -0.7247515241534556, 0.23503241509946485, -0.04978919696183373, 0.10365737686573029, 0.050442459244856186, 0.546978303523117, 2.1492052590178896, -0.41382605265762895, -0.1540844361826642, -0.04153347943174414, 0.9273282537306309, 0.09200967980742376, 1.2951383672054633, -0.5020127144270652, 0.13130034742155608, -0.04585367533226524, -0.7415962902455427, 0.44739848050915215, -0.344900576996867, 0.1802467480562274, -0.04299327817943505, -0.33459670353010673, -0.6492372649227495, -1.907993522811926, -0.16771439075913613, 1.8808719812957284, -1.8870403144393688, 0.6980315913368155, -1.0277729831628373, 0.26970919942568716, 1.2217502234619506, 0.16634886852030614, -0.5997192033369374, -0.16720900478388373, -0.7841857193364477, -0.1678929204956012, -0.053931716166087815, 1.4425190944351336, 0.4593616110511045]]], "biases": [[[1.1544637227369106], [0.3738983551688847], [1.0885987731507032], [-1.0855351310123438], [-0.11802043112846758], [0.4231724234663401], [-0.3357390021328187], [-0.24384859272133486], [-0.7176132138867685], [0.060505816171107875], [-0.942560942616364], [-0.25227430478963647], [0.82840688051717], [0.7771755359719281], [0.10652386089960614], [-0.26773789095185524], [0.37887756369784037], [0.7242891520419367], [-0.18857807162345372], [-0.35209666913778404], [1.3792497789054883], [-1.3656533193932852], [0.0661137439990241], [0.38809060789763705], [-1.517073410400297], [0.5179256523533607], [-0.8045200145795445], [0.5730351663703971], [0.05134845529223296], [1.2681356474904404], [-0.5403581081525911], [-0.9651622198236774], [0.6168895282103953], [0.542739077217775], [-0.8113657427583756], [-0.7465073832971308], [-0.8429484269777848], [-0.2549818200537651], [0.9854929620978233], [0.44849621064778744], [-1.6950932500359626], [-0.07886338837738814], [1.2901131024007229], [-0.7973571041933482], [-0.8141077424111621], [0.2737920809663998], [-3.273906465326641], [-0.40699510474981726], [-0.8519883642381443], [-0.1274237843500369], [-0.389036408100827], [-0.1870931155817002], [0.8081447740905984], [-1.5955174962573595], [0.8716818892124633], [0.14654255719307807], [-0.41418067120860846], [0.09640152054978918], [-0.162848078812399], [-1.9628026382201285], [-0.35265807213470673], [0.346114100989703], [-0.3570628171682797], [-0.5619266366575154], [0.5256018295086062], [0.7918080605382128], [0.6166797703389896], [2.026841327569629], [0.9005067882906916], [-0.6457263837375543], [1.160747314447914], [-0.8909193184137312], [2.1097482747042866], [-0.2518898403948064], [0.2585553264631693], [0.07657675171490386], [-0.6267431989159881], [-3.1183432575469867], [0.2652762185393677], [-1.218556655174117], [0.9180855841837041], [-1.8603523450722144], [1.2496839781983238], [-0.3481005017745431], [-0.2527929103115888], [-1.0692811886109377], [0.49115167862747894], [-1.1407334530290933], [-0.5302406697075281], [0.19052160054362954], [0.6828603447597194], [-0.3140920363801299], [0.6535682952283687], [2.0898024837534455], [-0.028373794117510537], [0.09414393440138258], [0.9786932704813047], [1.9512919480587354], [-0.8730317757522271], [1.183676615546455], [0.27207421533132886], [0.4457484249252353], [-1.7768712943392833], [-0.2011831000872587], [2.431625917010463], [-0.39482192156264956], [-0.6676507726288557], [0.23417479035526811], [0.2659178256768236], [0.8243760194426851], [-0.7015832570016238], [0.3613335273655229]], [[0.1872191504107682], [0.45191757625713]]], "sizes": [3, 112, 2]}