{"cost": "CrossEntropyCost", "weights": [[[-14.391633980257364, 0.4196284011159364, 1.6661975136228608], [-0.15693526164620641, 0.05851315086596845, -0.00661791761730598], [-11.992660484616685, -1.8966327226342432, -1.90220533374048], [-0.07677515452033706, 0.013198627135202593, 0.44945099487392065], [0.44475868479288616, 2.026219430189164, -1.5193734058833077], [-8.08507150114061, 1.3123156774759768, 9.333985042586344], [-5.881046841134812, -3.4113531139254025, -2.346542391434151], [2.313908927288662, -0.9511669899830074, 2.3764782004123624], [-12.408810480551654, 2.4138532812395153, 1.7990241541311105], [11.429534227473368, -0.10232047782640127, -9.734444367571076]], [[-4.517499114295804, 0.1862104911360174, 8.503364742288257, 0.07920497131008164, 2.230276002038752, -5.755020728152982, 4.23154739739478, -2.17153935103929, 2.6320457215281112, 9.200943820709707], [8.60551486274808, -0.22489675663770864, -10.057521964201248, -1.158994767556983, -0.05791243372588127, 1.6544419297249884, -4.711872299080263, -2.767764859126535, 4.269995131758935, -4.93893563238178], [-6.9799819205055496, -0.03552481749934299, -0.9851118081550123, 0.21130918396458326, 1.237466335804622, 7.7587793756432, 1.0586430807073774, 0.9467342517983793, -8.541868904680756, -7.306064105620558]]], "biases": [[[5.306920587921614], [-1.1955160767921522], [3.119607971119095], [1.362050326126308], [-1.074986554532455], [0.6206288095141989], [3.036859305209891], [-1.7265663820840513], [2.840169449844048], [-2.4996313544937583]], [[0.7899210958927295], [-4.001484363511145], [-0.8411734632206725]]], "sizes": [3, 10, 3]}