{"cost": "CrossEntropyCost", "weights": [[[-0.5372324913438067, 2.093023992734095, 0.7189674027285873], [4.601954086863038, -0.07268655962380283, -3.363947045390973], [-0.48335747428548104, 0.2781636706256234, 0.043065886944737286], [-0.8633102932681588, -0.008650198218680504, 0.6213319301842228], [0.2997269552383785, 0.2931194548691711, 0.23152998118816046], [0.7077408028157709, 1.8723605550282483, -0.25507272562265887], [-0.462429004524869, 1.801931085436385, 1.1434369941168439], [-0.7361138057711079, 0.15641795949967552, 0.5260804627042055], [-0.09774104018148717, 2.9144589450423424, 0.7188212560815003], [-1.2772902717619108, 1.9018747295141951, 1.5892804414553263], [0.9379579559715979, -2.557651118235339, -1.4397704525291917], [0.41258691834927913, 2.917039285714734, 0.44883881969565315], [-0.25457154842330393, -0.38597377269950295, -0.1753133119689298], [-0.43585224229118663, 0.10771614652607538, 0.4120725385694885], [-0.19737437118895138, 0.3011154616866211, 0.22515248609948244], [-0.9119286914177762, -2.1268955514457093, 0.33083278405065486], [0.11859089487211806, -0.11646729120225761, -0.14920824420169712], [-1.1549842406039206, -3.896800451603093, 0.060694132533466415], [0.7653570012056528, -0.19101838182981679, -0.9821386019677977], [-1.1867207789550964, -3.982181719605277, 0.24413812928722897], [-0.29670288949056706, -3.963667700377863, -0.35130451776056304], [1.0077571584814573, 0.22073666724072047, -0.74958714668424], [-0.29392254545831137, -0.1929514462218738, 0.19715686407800678], [1.7869334147638503, 1.5936152234744578, -1.1183791443982607], [0.5067920554106002, -2.3969812810205067, -0.9795668455274698], [-0.5327512239809599, -0.34244641367731055, 0.4287795928816279], [0.16334327562248865, 2.71634829928475, 0.5793494753072924], [-1.1408416934984973, 0.1503003814249219, 0.9461114951214099], [1.0760409290113524, 0.4107383440708533, -0.666914006597973], [0.7196790975439359, 1.6154701191803151, 0.04043199530133786], [-0.46533029541620957, 2.1529235782908067, 1.5855510079084156], [-0.5359543716673429, 2.814974212314159, 1.1219361517514492], [-0.5193238764927087, 0.26329356317174635, 0.473720060649762], [0.4320898032004472, 0.3138675796568947, -0.006154816850218737], [0.09294679323247214, -3.81037526777529, -0.8724412575772498], [1.1095047650256247, 2.979973034286088, -0.02982685817436757], [5.7649048104217595, -1.1516524078677333, -4.918015284810704], [-1.0193802523624935, -1.020652841080938, 0.689844398659337], [1.0419410087278511, 3.263112582047114, 0.009941853593855975], [-0.049099190270531626, 1.209758871920794, 0.5460435260541243], [1.0634400745823265, 1.09779848544047, -0.3043580836971376], [-0.9509739575560848, 2.8407604343710084, 1.277784394960065], [-0.20582351770482765, -1.070074736347725, 0.2665147373578456], [-0.501688282387429, -2.903442640406569, -0.3029000608861535], [0.3404079851009506, 0.42343303285099154, -0.41138934153381207], [-0.3269111419468203, -0.012169396882532844, 0.07584398819166889], [-0.07673328232320165, 0.40240349068351117, 0.169525790103059], [-1.2679021216708848, -0.2847151154902874, 0.8219620455780301], [0.02421906448725902, 0.8056085445939573, -0.2633757197944246], [0.3001603330051462, 0.7493480353157486, 0.15603968225762047], [-0.3520143922376146, 0.5660514902438687, 0.316858057756278], [-0.42482882209459427, -5.106981489189985, -1.2401711060803964], [-0.7008936419984422, 1.770543638163705, 0.9875889165992866], [2.2218409273031, 1.1430838405396553, -1.3702722700105547], [-0.7326751231731691, -3.9778629040318183, -0.5200066980750228], [-0.43274235978762815, -2.1217180648954153, -0.17108931212490947], [0.14451774636227138, 5.239821766026659, 1.4060663457311864], [0.35879829341711844, -2.163456987971548, -0.9520974366609315], [-0.7318406392165863, -2.1315387243671267, -0.2225330716380652], [-0.22648674268826172, -0.7284528281070994, -0.2394270511532854], [-0.4610727346039839, -0.17298269814551853, 0.289106207247023], [-0.4716419039416402, 4.72064279036278, 1.4406251969594053], [0.4280156331053116, -3.1176738673640925, -0.941384668263931], [-0.7466115456090828, 0.3640009283247896, 0.35859032738118435], [-0.4061366460939387, -4.086090283172799, -0.4640262445794374], [-1.0745072468818073, 0.7745057374512502, 0.951508048905978], [-3.3933411323114844, -0.9267846662242413, 2.2975295930232633], [2.1291088086538594, 2.778378444221389, -0.8749826526364978], [0.6524844771214084, 0.03289566376200331, -0.5083108153152279], [-0.3891984030704668, -0.10071733883701617, -0.1464469344423612], [-0.5188515516062583, -1.0510674678013696, 0.12896432994901932], [0.7650435622544617, 0.29777158248440255, -0.39272018077726545], [0.5530824819967516, -0.31873029512310924, -0.7606575703959885], [-1.2906823666841238, 4.18223278324171, 2.3864375461386635], [0.7286366935584868, -3.841690588848203, -1.324220399979738], [-1.7416406981691421, 1.2768330071826413, 1.8981764070045526], [-0.4840902474043125, 0.03723015357730113, 0.4066270082065795], [-0.3945777351861743, -3.7947099978244627, -0.4981803938742438], [0.7081486930388766, 1.721348934166458, -0.15249714802399003], [-0.9060797217449621, -2.8206955382053644, -0.195394691474835], [0.1431592177757007, -1.5582830083717796, -0.6415621434808466], [-0.14136326628223644, -1.616125471322989, -0.2914847111097466], [-0.061482237965402406, -0.029470743110721072, 0.009988831182886392], [0.06510383614301139, 4.49006677671146, 1.0713414705226907], [0.07957067096092049, 5.123863266407223, 1.217166740109918], [0.506223865572683, -3.81580834009703, -1.4926007245504684], [-1.234651540686345, -1.92681726255816, 0.48477686345602505], [0.23637373728787212, 0.9081398789070858, 0.5621823643282081], [-3.517649340388391, 0.6000322159022631, 2.9568898701181383], [0.17149152216940558, -1.4991458299659906, -0.2932313595876856], [-4.214757517107008, 1.0314536469337026, 3.106760423370009], [-0.17297928615671693, 0.667877281658333, 0.3895526770852615], [1.2433969601889778, -0.06989303322055895, -0.9675162641644148], [-0.037152445040785215, -0.24629942867047638, -0.5397804339702162], [-0.5179184893559937, 0.30540945024393634, 0.4233923458823997], [0.8049133762713349, -2.510541287456952, -1.3726884831850574], [1.4857898600070323, 0.04132480016255276, -1.2818309858345256], [0.13577778754636824, 1.0613018075147742, 0.11778684909513508], [0.258520876097815, 0.1460904364769691, -0.07847323423885401], [0.35041645392285664, -2.925035701497834, -0.859560565037678]], [[1.2557666599825408, -3.828240735690495, 0.4045804904403836, 0.8548792117303865, -0.036211792074220206, -0.1812640305828654, 1.3593478072127478, 0.7360448279792631, 1.1366592912689164, 2.1154115380169416, -1.9960018927453305, 0.6017974107061513, 0.017410648841940178, 0.49639240492336845, 0.30233138300524126, 0.32732586609560643, -0.15777429843331664, -0.06985872978747187, -1.1197278880197032, 0.06610170673220202, -0.853968727887393, -1.0670985002028035, 0.24213129956557838, -1.475602987042566, -1.4266408347426465, 0.48374376939195995, 0.8332164147589309, 1.2360123485774763, -1.0336085332879714, -0.10025732391761619, 1.6558236013257648, 1.6001560670264214, 0.6308507822525382, -0.24140611519926827, -1.384422608105411, -0.09800884984772056, -4.9214671251668625, 0.7923140541875436, 0.041068916946594446, 0.5658569429236354, -0.6570719783548022, 2.0014659620622974, -0.004224723907126933, -0.4987545112910608, -0.4281921095865125, 0.2317266452675321, 0.23551694159127282, 1.1550671884584978, -0.006488751009304581, 0.07170463232358174, 0.531098184536474, -1.523749846671057, 1.4013626351496216, -1.897488987019752, -0.7113443679296698, -0.3007293633393788, 1.8124161851461238, -1.2377783514555698, -0.16712865588230724, -0.14384915289266187, 0.3993596771802876, 2.1270581542946507, -1.5020469939623788, 0.74269852301525, -0.8985217137365091, 1.351308560295119, 2.6690291300193447, -1.3612288292140793, -0.766976197093776, 0.09781178119478152, 0.17429968248256908, -0.7216728746702114, -0.8930817113880296, 3.111254988723899, -2.0723374301970843, 2.331005973167578, 0.5036102807123723, -0.8237410729554179, -0.20470600598297325, -0.14093026315213117, -0.7724746252239088, -0.4001687135946231, 0.030490023939680814, 1.5239018107260935, 1.7413410148427417, -2.0116358327554718, 0.6530133592891042, 0.35286298253458037, 3.3222707661353095, -0.5352789743656496, 3.7719519025280253, 0.4367119929023969, -1.375667789510058, -0.35712150599212217, 0.6348675360968064, -1.880161104416213, -1.6713739859298005, 0.24355470233949192, -0.19535326915560142, -1.3313192863198866], [-1.6088411299299965, 0.9659566569275042, -0.22302051147871102, -0.18163585283787032, -0.31414090922911614, -1.2997032753642506, -1.5550479287543137, -0.2718148957418428, -2.195745033104044, -1.7432203839121938, 2.033963215139298, -2.1842729257488225, 0.31183330996520553, -0.21929443847257402, -0.27815641761281495, 1.3486865383311726, 0.10139162369438609, 2.62685002057454, 0.3129213733604227, 2.6285736014978225, 2.747983642737065, -0.06328221288089378, 0.06708674340408521, -0.9195981968728228, 1.7858500474960086, 0.10291182092383451, -2.065709687671147, -0.3619854113868793, -0.20370494176369447, -1.1961996277778164, -1.9647203775241049, -2.2179930647743764, -0.3253370041349294, -0.26220140362740135, 2.7367599233567557, -2.114675686069501, 2.2806260406998975, 0.5190180720453708, -2.3310747068458975, -1.0319730769580158, -0.7861625545028761, -2.240627199098783, 0.6042318820756204, 2.035134336149731, -0.26619971079506277, -0.015886994594080682, -0.3283229105047155, -0.02215115007679903, -0.4881335679358545, -0.6016948695119434, -0.47312022610302057, 3.7786859661003493, -1.4741286407318785, -0.5642217264252016, 2.8219953609615422, 1.4710414134547811, -4.027031173912166, 1.6320385885183322, 1.4870779952543813, 0.5464707306970186, 0.04386371121569664, -3.608277514986138, 2.2776944799018852, -0.319964224202091, 2.849063186350324, -0.7540767713017796, -0.03548403787812641, -1.8097387123816495, -0.0075470040443909436, 0.032308303759667034, 0.692451068261491, -0.2015400891319314, 0.36540993574005726, -3.5074785373123047, 2.8252282640419546, -1.4205368657228283, -0.1608045931001436, 2.641562036099749, -1.2299949291638403, 1.9609919735826093, 1.1702493639921556, 1.122302852108113, -0.010573302918364686, -3.393099210098132, -3.813788788398654, 2.891338936608912, 1.2236120436459463, -0.8555603053293137, -1.2975490814226964, 1.0219141562297036, -1.6406583835572033, -0.6209457073650275, 0.1294174471065395, 0.2805917166809393, -0.32836296103800433, 1.9456887760846968, 0.16309286321211408, -0.8064416720881913, -0.11118620445246868, 2.1070322990884427], [0.9407211384586323, 2.9587081029179183, -0.05189181091822983, -0.5260219949646423, 0.07416223429519932, 1.3907777805743406, 0.6556565919927924, -0.2985969869618196, 1.6099987336876307, 0.3059674043484274, -1.082981095900669, 1.809408073069414, -0.30080853793638906, -0.24989077279971722, 0.03728422063852227, -1.79630128858606, -0.033378388068660156, -2.9451230549355927, 0.29728768561778324, -3.0663595495476685, -2.624036759452384, 0.5460167222746622, -0.3021326928300249, 1.7713532372258998, -1.2480060763236616, -0.5505879213296788, 1.5696513620940655, -0.6029300323267298, 0.704422025041798, 1.1762943259472012, 0.731603620409183, 1.3144449228029154, -0.17319241514339878, 0.29823949512107545, -2.3071120904646425, 2.1934706083385627, 3.763903949253067, -1.193063287784187, 2.3258427688862526, 0.5514235925099261, 1.0137213186430252, 1.1779845450764057, -0.8717262091368084, -1.9969384021509533, 0.398358461894283, -0.15862920862077334, 0.15341049308980914, -0.8813469946165087, 0.5600109033746149, 0.47075114166142346, 0.13186221031476625, -3.183349561315437, 0.6135921869525296, 1.707726322901093, -2.7186262184745886, -1.4976833027465273, 2.9768324823962304, -1.1498659819530228, -1.5946678911633607, -0.5186467993853624, -0.35748176345474214, 2.4963202121886754, -1.7357725459344309, -0.11597920000599896, -2.720621837966496, -0.10841044099652049, -2.651986911497877, 2.5737547973335886, 0.24495872518637046, -0.14067467729549155, -0.8941191862406556, 0.454621469254877, 0.11890177805270631, 1.6303533430296167, -2.0650858978690345, -0.3930581280040054, -0.2840123272575497, -2.5396519785034255, 1.278305449058898, -2.1099190231866602, -0.8815469893037637, -1.0937636064565304, -0.0679606125375399, 2.573868134113634, 2.999559115697849, -2.0448719535660915, -1.7663477104168492, 0.4197792089524085, -2.067542202047876, -0.9381666895097622, -2.276117470476318, 0.20170815639989556, 0.40234118645170963, -0.09138998318321111, -0.1424118613677088, -1.1529570624722572, 0.700566696544352, 0.618477308095147, 0.15903673247066083, -1.6791583103224137]]], "biases": [[[0.2513345938565257], [-1.2523363999517865], [-1.0786778568272555], [-0.2748444292664813], [1.7173750473201437], [-0.5001971716972978], [0.201087530584142], [0.5227608714491768], [0.117751519065817], [0.5120127194485355], [-0.6446023831790988], [-0.16317017632536734], [-1.2545423837587035], [-0.8863852465621126], [-0.7724902424664509], [0.3271745743167218], [-2.238423540416055], [0.4716699862251496], [-0.3470974385007541], [0.5054360635156269], [0.004363518362011752], [-0.6174617774390208], [-1.028902937724167], [-0.7569941954658488], [-0.46373376905342073], [-0.5708517075209669], [-0.03996684058601081], [0.008794947305989698], [-0.4352780602634293], [-0.5141842727517114], [0.2785009006770737], [0.3562788092367469], [-0.40426941329010413], [-1.088261084112189], [-0.25068262021084237], [-0.5539601321680467], [-1.6896292146749952], [0.20766356964707688], [-0.5073533065427402], [-0.11160210286308667], [-0.7278913866783974], [0.5350647633936878], [-0.1558203615222005], [0.106778893085791], [-0.08579586382983324], [-0.3948307394873129], [-1.381242553623277], [0.03951826306216875], [-0.1122442195292469], [-0.9965939070774235], [-0.3608861165563316], [-0.05792026669537926], [0.3014271951991625], [-0.763249120898974], [0.19630499700956117], [0.06327032842801353], [0.16939596860302022], [-0.40991258376498885], [0.22083773796467912], [-0.3882877832393223], [-0.5034480649080865], [0.44174560386414], [-0.4171163253609633], [0.12264408510713719], [0.04462487700778865], [0.28636525838174137], [0.8451934918466978], [-0.9605499594547959], [-0.6103884600931905], [-2.8362338649264127], [-0.02931984978277343], [-0.32255017728466806], [-0.24059685516934098], [0.8162181874117233], [-0.5882116637054815], [0.4959781161680702], [-0.20038392697388974], [0.031164803459429576], [-0.4806001674616143], [0.3134121144106716], [-0.36879638101104023], [-0.21607830924015745], [-1.7787540669037372], [0.14539499917802923], [0.17409011025153376], [-0.5046961286345619], [0.4651866128649392], [-0.6290817769836625], [0.8828824679451458], [-0.4965015116832212], [1.10275803875732], [-0.293431824781274], [-0.7724446489330712], [-0.28414025416458494], [-0.7359036704726687], [-0.5985854565559033], [-0.5834099373449008], [-0.5979659686339327], [-1.5381308672254852], [-0.38309076497846806]], [[-0.19665431762087282], [0.26734297421138076], [0.20626782346057482]]], "sizes": [3, 100, 3]}